<!--
   Copyright (C) 2017  Radicalbit

   This file is part of flink-JPMML

   flink-JPMML is free software: you can redistribute it and/or modify
   it under the terms of the GNU Affero General Public License as
   published by the Free Software Foundation, either version 3 of the
   License, or (at your option) any later version.

   flink-JPMML is distributed in the hope that it will be useful,
   but WITHOUT ANY WARRANTY; without even the implied warranty of
   MERCHANTABILITY or FITNESS FOR A PARTICULAR PURPOSE.  See the
   GNU Affero General Public License for more details.

   You should have received a copy of the GNU Affero General Public License
   along with flink-JPMML.  If not, see <http://www.gnu.org/licenses/>.
-->

<PMML version="4.0" xmlns="http://www.dmg.org/PMML-4_0">
  <Header copyright="morent">
    <Application name="KNIME" version="2.4.1"/>
  </Header>
  <DataDictionary numberOfFields="5">
    <DataField name="sepal_length" optype="continuous" dataType="double">
      <Interval closure="closedClosed" leftMargin="4.3" rightMargin="7.9"/>
    </DataField>
    <DataField name="sepal_width" optype="continuous" dataType="double">
      <Interval closure="closedClosed" leftMargin="2.0" rightMargin="4.4"/>
    </DataField>
    <DataField name="petal_length" optype="continuous" dataType="double">
      <Interval closure="closedClosed" leftMargin="1.0" rightMargin="6.9"/>
    </DataField>
    <DataField name="petal_width" optype="continuous" dataType="double">
      <Interval closure="closedClosed" leftMargin="0.1" rightMargin="2.5"/>
    </DataField>
    <DataField name="clazz" optype="categorical" dataType="string">
      <Value value="Iris-setosa"/>
      <Value value="Iris-versicolor"/>
      <Value value="Iris-virginica"/>
    </DataField>
  </DataDictionary>
  <ClusteringModel modelName="k-means" functionName="clustering" modelClass="centerBased" numberOfClusters="3">
    <MiningSchema>
      <MiningField name="sepal_length" invalidValueTreatment="asIs"/>
      <MiningField name="sepal_width" invalidValueTreatment="asIs"/>
      <MiningField name="petal_length" invalidValueTreatment="asIs"/>
      <MiningField name="petal_width" invalidValueTreatment="asIs"/>
      <MiningField name="clazz" invalidValueTreatment="asIs" usageType="predicted"/>
    </MiningSchema>
    <ComparisonMeasure kind="distance">
      <squaredEuclidean/>
    </ComparisonMeasure>
    <ClusteringField field="sepal_length" compareFunction="absDiff"/>
    <ClusteringField field="sepal_width" compareFunction="absDiff"/>
    <ClusteringField field="petal_length" compareFunction="absDiff"/>
    <ClusteringField field="petal_width" compareFunction="absDiff"/>
    <Cluster name="cluster_0" size="78">
      <Array n="4" type="real">6.8538461538461535 3.076923076923076 5.715384615384614 2.0538461538461537</Array>
    </Cluster>
    <Cluster name="cluster_1" size="20">
      <Array n="4" type="real">5.883606557377049 2.740983606557377 4.388524590163936 1.4344262295081966</Array>
    </Cluster>
    <Cluster name="cluster_2" size="22">
      <Array n="4" type="real">5.005999999999999 3.4180000000000006 1.4640000000000002 0.2439999999999999</Array>
    </Cluster>
    <Output>
      <OutputField name="PCluster" optype="clazz" dataType="integer" targetField="clazz" feature="entityId"/>
    </Output>
  </ClusteringModel>
</PMML>